%YAML:1.0
---
opencv_ml_rtrees:
   format: 3
   is_classifier: 1
   var_all: 235
   var_count: 234
   ord_var_count: 234
   cat_var_count: 1
   training_params:
      use_surrogates: 0
      max_categories: 10
      regression_accuracy: 0.
      max_depth: 5
      min_sample_count: 10
      cross_validation_folds: 0
      nactive_vars: 0
   global_var_idx: 1
   var_idx: [ 0, 1, 2, 3, 4, 5, 6, 7, 8, 9, 10, 11, 12, 13, 14, 15, 16,
       17, 18, 19, 20, 21, 22, 23, 24, 25, 26, 27, 28, 29, 30, 31, 32,
       33, 34, 35, 36, 37, 38, 39, 40, 41, 42, 43, 44, 45, 46, 47, 48,
       49, 50, 51, 52, 53, 54, 55, 56, 57, 58, 59, 60, 61, 62, 63, 64,
       65, 66, 67, 68, 69, 70, 71, 72, 73, 74, 75, 76, 77, 78, 79, 80,
       81, 82, 83, 84, 85, 86, 87, 88, 89, 90, 91, 92, 93, 94, 95, 96,
       97, 98, 99, 100, 101, 102, 103, 104, 105, 106, 107, 108, 109, 110,
       111, 112, 113, 114, 115, 116, 117, 118, 119, 120, 121, 122, 123,
       124, 125, 126, 127, 128, 129, 130, 131, 132, 133, 134, 135, 136,
       137, 138, 139, 140, 141, 142, 143, 144, 145, 146, 147, 148, 149,
       150, 151, 152, 153, 154, 155, 156, 157, 158, 159, 160, 161, 162,
       163, 164, 165, 166, 167, 168, 169, 170, 171, 172, 173, 174, 175,
       176, 177, 178, 179, 180, 181, 182, 183, 184, 185, 186, 187, 188,
       189, 190, 191, 192, 193, 194, 195, 196, 197, 198, 199, 200, 201,
       202, 203, 204, 205, 206, 207, 208, 209, 210, 211, 212, 213, 214,
       215, 216, 217, 218, 219, 220, 221, 222, 223, 224, 225, 226, 227,
       228, 229, 230, 231, 232, 233 ]
   var_type: [ 0, 0, 0, 0, 0, 0, 0, 0, 0, 0, 0, 0, 0, 0, 0, 0, 0, 0, 0,
       0, 0, 0, 0, 0, 0, 0, 0, 0, 0, 0, 0, 0, 0, 0, 0, 0, 0, 0, 0, 0, 0,
       0, 0, 0, 0, 0, 0, 0, 0, 0, 0, 0, 0, 0, 0, 0, 0, 0, 0, 0, 0, 0, 0,
       0, 0, 0, 0, 0, 0, 0, 0, 0, 0, 0, 0, 0, 0, 0, 0, 0, 0, 0, 0, 0, 0,
       0, 0, 0, 0, 0, 0, 0, 0, 0, 0, 0, 0, 0, 0, 0, 0, 0, 0, 0, 0, 0, 0,
       0, 0, 0, 0, 0, 0, 0, 0, 0, 0, 0, 0, 0, 0, 0, 0, 0, 0, 0, 0, 0, 0,
       0, 0, 0, 0, 0, 0, 0, 0, 0, 0, 0, 0, 0, 0, 0, 0, 0, 0, 0, 0, 0, 0,
       0, 0, 0, 0, 0, 0, 0, 0, 0, 0, 0, 0, 0, 0, 0, 0, 0, 0, 0, 0, 0, 0,
       0, 0, 0, 0, 0, 0, 0, 0, 0, 0, 0, 0, 0, 0, 0, 0, 0, 0, 0, 0, 0, 0,
       0, 0, 0, 0, 0, 0, 0, 0, 0, 0, 0, 0, 0, 0, 0, 0, 0, 0, 0, 0, 0, 0,
       0, 0, 0, 0, 0, 0, 0, 0, 0, 0, 0, 0, 0, 0, 0, 0, 0, 1 ]
   cat_ofs: [ 0, 0, 0, 0, 0, 0, 0, 0, 0, 0, 0, 0, 0, 0, 0, 0, 0, 0, 0, 0,
       0, 0, 0, 0, 0, 0, 0, 0, 0, 0, 0, 0, 0, 0, 0, 0, 0, 0, 0, 0, 0, 0,
       0, 0, 0, 0, 0, 0, 0, 0, 0, 0, 0, 0, 0, 0, 0, 0, 0, 0, 0, 0, 0, 0,
       0, 0, 0, 0, 0, 0, 0, 0, 0, 0, 0, 0, 0, 0, 0, 0, 0, 0, 0, 0, 0, 0,
       0, 0, 0, 0, 0, 0, 0, 0, 0, 0, 0, 0, 0, 0, 0, 0, 0, 0, 0, 0, 0, 0,
       0, 0, 0, 0, 0, 0, 0, 0, 0, 0, 0, 0, 0, 0, 0, 0, 0, 0, 0, 0, 0, 0,
       0, 0, 0, 0, 0, 0, 0, 0, 0, 0, 0, 0, 0, 0, 0, 0, 0, 0, 0, 0, 0, 0,
       0, 0, 0, 0, 0, 0, 0, 0, 0, 0, 0, 0, 0, 0, 0, 0, 0, 0, 0, 0, 0, 0,
       0, 0, 0, 0, 0, 0, 0, 0, 0, 0, 0, 0, 0, 0, 0, 0, 0, 0, 0, 0, 0, 0,
       0, 0, 0, 0, 0, 0, 0, 0, 0, 0, 0, 0, 0, 0, 0, 0, 0, 0, 0, 0, 0, 0,
       0, 0, 0, 0, 0, 0, 0, 0, 0, 0, 0, 0, 0, 0, 0, 0, 0, 0, 0, 0, 0, 0,
       0, 0, 0, 0, 0, 0, 0, 0, 0, 0, 0, 0, 0, 0, 0, 0, 0, 0, 0, 0, 0, 0,
       0, 0, 0, 0, 0, 0, 0, 0, 0, 0, 0, 0, 0, 0, 0, 0, 0, 0, 0, 0, 0, 0,
       0, 0, 0, 0, 0, 0, 0, 0, 0, 0, 0, 0, 0, 0, 0, 0, 0, 0, 0, 0, 0, 0,
       0, 0, 0, 0, 0, 0, 0, 0, 0, 0, 0, 0, 0, 0, 0, 0, 0, 0, 0, 0, 0, 0,
       0, 0, 0, 0, 0, 0, 0, 0, 0, 0, 0, 0, 0, 0, 0, 0, 0, 0, 0, 0, 0, 0,
       0, 0, 0, 0, 0, 0, 0, 0, 0, 0, 0, 0, 0, 0, 0, 0, 0, 0, 0, 0, 0, 0,
       0, 0, 0, 0, 0, 0, 0, 0, 0, 0, 0, 0, 0, 0, 0, 0, 0, 0, 0, 0, 0, 0,
       0, 0, 0, 0, 0, 0, 0, 0, 0, 0, 0, 0, 0, 0, 0, 0, 0, 0, 0, 0, 0, 0,
       0, 0, 0, 0, 0, 0, 0, 0, 0, 0, 0, 0, 0, 0, 0, 0, 0, 0, 0, 0, 0, 0,
       0, 0, 0, 0, 0, 0, 0, 0, 0, 0, 0, 0, 0, 0, 0, 0, 0, 0, 0, 0, 0, 0,
       0, 0, 0, 0, 0, 0, 0, 0 ]
   class_labels: [ 1, 2, 3, 4 ]
   missing_subst: [ 0., 0., 0., 0., 0., 0., 0., 0., 0., 0., 0., 0., 0.,
       0., 0., 0., 0., 0., 0., 0., 0., 0., 0., 0., 0., 0., 0., 0., 0.,
       0., 0., 0., 0., 0., 0., 0., 0., 0., 0., 0., 0., 0., 0., 0., 0.,
       0., 0., 0., 0., 0., 0., 0., 0., 0., 0., 0., 0., 0., 0., 0., 0.,
       0., 0., 0., 0., 0., 0., 0., 0., 0., 0., 0., 0., 0., 0., 0., 0.,
       0., 0., 0., 0., 0., 0., 0., 0., 0., 0., 0., 0., 0., 0., 0., 0.,
       0., 0., 0., 0., 0., 0., 0., 0., 0., 0., 0., 0., 0., 0., 0., 0.,
       0., 0., 0., 0., 0., 0., 0., 0., 0., 0., 0., 0., 0., 0., 0., 0.,
       0., 0., 0., 0., 0., 0., 0., 0., 0., 0., 0., 0., 0., 0., 0., 0.,
       0., 0., 0., 0., 0., 0., 0., 0., 0., 0., 0., 0., 0., 0., 0., 0.,
       0., 0., 0., 0., 0., 0., 0., 0., 0., 0., 0., 0., 0., 0., 0., 0.,
       0., 0., 0., 0., 0., 0., 0., 0., 0., 0., 0., 0., 0., 0., 0., 0.,
       0., 0., 0., 0., 0., 0., 0., 0., 0., 0., 0., 0., 0., 0., 0., 0.,
       0., 0., 0., 0., 0., 0., 0., 0., 0., 0., 0., 0., 0., 0., 0., 0.,
       0., 0., 0., 0., 0., 0., 0., 0., 0., 0., 0., 0., 0., 0. ]
   oob_error: 9.6905537459283389e-02
   ntrees: 100
   trees:
      -
         nodes:
            -
               depth: 0
               value: 3.
               norm_class_idx: 2
               splits:
                  - { var:224, quality:2.6233190917968750e+03,
                      le:2.5390457361936569e-02 }
            -
               depth: 1
               value: 1.
               norm_class_idx: 0
               splits:
                  - { var:169, quality:1.2502487792968750e+03,
                      le:6.1858445405960083e-05 }
            -
               depth: 2
               value: 1.
               norm_class_idx: 0
               splits:
                  - { var:219, quality:1.1280440673828125e+03,
                      le:1.6595000028610229e-01 }
            -
               depth: 3
               value: 1.
               norm_class_idx: 0
               splits:
                  - { var:33, quality:1.1333333740234375e+03,
                      le:5.6577003002166748e-01 }
            -
               depth: 4
               value: 1.
               norm_class_idx: 0
            -
               depth: 4
               value: 4.
               norm_class_idx: 3
            -
               depth: 3
               value: 4.
               norm_class_idx: 3
            -
               depth: 2
               value: 4.
               norm_class_idx: 3
               splits:
                  - { var:184, quality:1.6174006652832031e+02,
                      le:-4.9795778468251228e-03 }
            -
               depth: 3
               value: 1.
               norm_class_idx: 0
               splits:
                  - { var:30, quality:6.3319999694824219e+01,
                      le:1.6988160088658333e-02 }
            -
               depth: 4
               value: 1.
               norm_class_idx: 0
            -
               depth: 4
               value: 3.
               norm_class_idx: 2
               splits:
                  - { var:197, quality:1.8846153259277344e+01,
                      le:4.1531254537403584e-03 }
            -
               depth: 5
               value: 4.
               norm_class_idx: 3
            -
               depth: 5
               value: 3.
               norm_class_idx: 2
            -
               depth: 3
               value: 4.
               norm_class_idx: 3
               splits:
                  - { var:38, quality:1.3797364807128906e+02,
                      le:4.9040183424949646e-02 }
            -
               depth: 4
               value: 4.
               norm_class_idx: 3
               splits:
                  - { var:212, quality:1.0000279235839844e+02,
                      le:5.7646118164062500e+02 }
            -
               depth: 5
               value: 4.
               norm_class_idx: 3
            -
               depth: 5
               value: 1.
               norm_class_idx: 0
            -
               depth: 4
               value: 4.
               norm_class_idx: 3
               splits:
                  - { var:204, quality:8.8202247619628906e+01,
                      le:1.5034034848213196e-01 }
            -
               depth: 5
               value: 3.
               norm_class_idx: 2
            -
               depth: 5
               value: 4.
               norm_class_idx: 3
            -
               depth: 1
               value: 3.
               norm_class_idx: 2
               splits:
                  - { var:95, quality:1.8482268066406250e+03,
                      le:8.9187955856323242e+00 }
            -
               depth: 2
               value: 2.
               norm_class_idx: 1
               splits:
                  - { var:156, quality:8.7103497314453125e+02,
                      le:1.5455611050128937e-01 }
            -
               depth: 3
               value: 2.
               norm_class_idx: 1
               splits:
                  - { var:55, quality:8.4967541503906250e+02,
                      le:1.4723281860351562e+00 }
            -
               depth: 4
               value: 4.
               norm_class_idx: 3
               splits:
                  - { var:209, quality:3.6572750854492188e+02,
                      le:4.6500317694153637e-05 }
            -
               depth: 5
               value: 1.
               norm_class_idx: 0
            -
               depth: 5
               value: 4.
               norm_class_idx: 3
            -
               depth: 4
               value: 2.
               norm_class_idx: 1
               splits:
                  - { var:71, quality:5.9569537353515625e+02,
                      le:4.9450549483299255e-01 }
            -
               depth: 5
               value: 2.
               norm_class_idx: 1
            -
               depth: 5
               value: 3.
               norm_class_idx: 2
            -
               depth: 3
               value: 3.
               norm_class_idx: 2
               splits:
                  - { var:201, quality:1.8110255432128906e+02,
                      le:2.7574624400585890e-03 }
            -
               depth: 4
               value: 3.
               norm_class_idx: 2
               splits:
                  - { var:204, quality:1.5997802734375000e+02,
                      le:2.3007518053054810e-01 }
            -
               depth: 5
               value: 3.
               norm_class_idx: 2
            -
               depth: 5
               value: 2.
               norm_class_idx: 1
            -
               depth: 4
               value: 3.
               norm_class_idx: 2
               splits:
                  - { var:185, quality:9.0023529052734375e+01,
                      le:2.4086039047688246e-05 }
            -
               depth: 5
               value: 4.
               norm_class_idx: 3
            -
               depth: 5
               value: 3.
               norm_class_idx: 2
            -
               depth: 2
               value: 3.
               norm_class_idx: 2
               splits:
                  - { var:152, quality:1.2911418457031250e+03,
                      le:5.3815668821334839e-01 }
            -
               depth: 3
               value: 3.
               norm_class_idx: 2
               splits:
                  - { var:164, quality:6.5070812988281250e+02,
                      le:1.7557856440544128e-01 }
            -
               depth: 4
               value: 2.
               norm_class_idx: 1
               splits:
                  - { var:224, quality:2.4712963867187500e+02,
                      le:5.4788038134574890e-02 }
            -
               depth: 5
               value: 3.
               norm_class_idx: 2
            -
               depth: 5
               value: 2.
               norm_class_idx: 1
            -
               depth: 4
               value: 3.
               norm_class_idx: 2
               splits:
                  - { var:160, quality:4.7805633544921875e+02,
                      le:1.5635715425014496e-01 }
            -
               depth: 5
               value: 1.
               norm_class_idx: 0
            -
               depth: 5
               value: 3.
               norm_class_idx: 2
            -
               depth: 3
               value: 4.
               norm_class_idx: 3
               splits:
                  - { var:153, quality:1.0569700927734375e+03,
                      le:7.0179007016122341e-03 }
            -
               depth: 4
               value: 4.
               norm_class_idx: 3
               splits:
                  - { var:213, quality:7.3186206054687500e+02,
                      le:1.0171875000000000e+01 }
            -
               depth: 5
               value: 4.
               norm_class_idx: 3
            -
               depth: 5
               value: 4.
               norm_class_idx: 3
            -
               depth: 4
               value: 3.
               norm_class_idx: 2
               splits:
                  - { var:180, quality:5.6504248046875000e+02,
                      le:6.7678727209568024e-03 }
            -
               depth: 5
               value: 4.
               norm_class_idx: 3
            -
               depth: 5
               value: 3.
               norm_class_idx: 2
      -
         nodes:
            -
               depth: 0
               value: 1.
               norm_class_idx: 0
               splits:
                  - { var:228, quality:2.3937309570312500e+03,
                      le:1.4908337593078613e-01 }
            -
               depth: 1
               value: 1.
               norm_class_idx: 0
               splits:
                  - { var:205, quality:1.2825346679687500e+03,
                      le:8.5973486420698464e-05 }
            -
               depth: 2
               value: 1.
               norm_class_idx: 0
               splits:
                  - { var:176, quality:1.1178594970703125e+03,
                      le:5.5253744125366211e-02 }
            -
               depth: 3
               value: 1.
               norm_class_idx: 0
               splits:
                  - { var:205, quality:1.1109578857421875e+03,
                      le:6.4505882619414479e-05 }
            -
               depth: 4
               value: 1.
               norm_class_idx: 0
               splits:
                  - { var:169, quality:1.0565574951171875e+03,
                      le:8.1199526903219521e-05 }
            -
               depth: 5
               value: 1.
               norm_class_idx: 0
            -
               depth: 5
               value: 1.
               norm_class_idx: 0
            -
               depth: 4
               value: 1.
               norm_class_idx: 0
               splits:
                  - { var:169, quality:7.7967781066894531e+01,
                      le:6.7822635173797607e-05 }
            -
               depth: 5
               value: 1.
               norm_class_idx: 0
            -
               depth: 5
               value: 4.
               norm_class_idx: 3
            -
               depth: 3
               value: 2.
               norm_class_idx: 1
               splits:
                  - { var:6, quality:2.6333333969116211e+01,
                      le:1.6988160088658333e-02 }
            -
               depth: 4
               value: 2.
               norm_class_idx: 1
               splits:
                  - { var:156, quality:2.0799999237060547e+01,
                      le:1.4471122622489929e-01 }
            -
               depth: 5
               value: 2.
               norm_class_idx: 1
            -
               depth: 5
               value: 2.
               norm_class_idx: 1
            -
               depth: 4
               value: 1.
               norm_class_idx: 0
            -
               depth: 2
               value: 4.
               norm_class_idx: 3
               splits:
                  - { var:200, quality:2.7999353027343750e+02,
                      le:1.6083309054374695e-01 }
            -
               depth: 3
               value: 4.
               norm_class_idx: 3
               splits:
                  - { var:208, quality:2.1687191772460938e+02,
                      le:1.0995733737945557e-01 }
            -
               depth: 4
               value: 3.
               norm_class_idx: 2
            -
               depth: 4
               value: 4.
               norm_class_idx: 3
               splits:
                  - { var:226, quality:2.3702355957031250e+02,
                      le:4.7480366192758083e-03 }
            -
               depth: 5
               value: 1.
               norm_class_idx: 0
            -
               depth: 5
               value: 4.
               norm_class_idx: 3
            -
               depth: 3
               value: 2.
               norm_class_idx: 1
               splits:
                  - { var:181, quality:1.1921428680419922e+02,
                      le:4.6334040234796703e-05 }
            -
               depth: 4
               value: 1.
               norm_class_idx: 0
               splits:
                  - { var:134, quality:1.4642857551574707e+01,
                      le:7.8048515319824219e-01 }
            -
               depth: 5
               value: 1.
               norm_class_idx: 0
            -
               depth: 5
               value: 2.
               norm_class_idx: 1
            -
               depth: 4
               value: 2.
               norm_class_idx: 1
               splits:
                  - { var:162, quality:1.2049620056152344e+02,
                      le:-1.1542090773582458e-01 }
            -
               depth: 5
               value: 4.
               norm_class_idx: 3
            -
               depth: 5
               value: 2.
               norm_class_idx: 1
            -
               depth: 1
               value: 3.
               norm_class_idx: 2
               splits:
                  - { var:196, quality:1.8517155761718750e+03,
                      le:1.9800043106079102e-01 }
            -
               depth: 2
               value: 2.
               norm_class_idx: 1
               splits:
                  - { var:225, quality:1.1534290771484375e+03,
                      le:6.8425145000219345e-03 }
            -
               depth: 3
               value: 4.
               norm_class_idx: 3
               splits:
                  - { var:32, quality:4.2414450073242188e+02,
                      le:8.3230000734329224e-01 }
            -
               depth: 4
               value: 4.
               norm_class_idx: 3
               splits:
                  - { var:21, quality:2.6803561401367188e+02,
                      le:-6.3359998166561127e-03 }
            -
               depth: 5
               value: 3.
               norm_class_idx: 2
            -
               depth: 5
               value: 4.
               norm_class_idx: 3
            -
               depth: 4
               value: 1.
               norm_class_idx: 0
               splits:
                  - { var:173, quality:2.4448155212402344e+02,
                      le:7.7966964454390109e-05 }
            -
               depth: 5
               value: 1.
               norm_class_idx: 0
            -
               depth: 5
               value: 3.
               norm_class_idx: 2
            -
               depth: 3
               value: 2.
               norm_class_idx: 1
               splits:
                  - { var:152, quality:9.7212689208984375e+02,
                      le:5.1703178882598877e-01 }
            -
               depth: 4
               value: 2.
               norm_class_idx: 1
               splits:
                  - { var:65, quality:5.3673681640625000e+02,
                      le:3.2468041777610779e-01 }
            -
               depth: 5
               value: 2.
               norm_class_idx: 1
            -
               depth: 5
               value: 3.
               norm_class_idx: 2
            -
               depth: 4
               value: 2.
               norm_class_idx: 1
               splits:
                  - { var:213, quality:5.3315594482421875e+02,
                      le:1.6963542938232422e+01 }
            -
               depth: 5
               value: 4.
               norm_class_idx: 3
            -
               depth: 5
               value: 2.
               norm_class_idx: 1
            -
               depth: 2
               value: 3.
               norm_class_idx: 2
               splits:
                  - { var:38, quality:1.2347084960937500e+03,
                      le:1.6988160088658333e-02 }
            -
               depth: 3
               value: 4.
               norm_class_idx: 3
               splits:
                  - { var:152, quality:3.8163311767578125e+02,
                      le:6.3806354999542236e-01 }
            -
               depth: 4
               value: 4.
               norm_class_idx: 3
               splits:
                  - { var:23, quality:4.0671127319335938e+02,
                      le:9.0143890380859375e+00 }
            -
               depth: 5
               value: 4.
               norm_class_idx: 3
            -
               depth: 5
               value: 3.
               norm_class_idx: 2
            -
               depth: 4
               value: 3.
               norm_class_idx: 2
               splits:
                  - { var:31, quality:4.9121562957763672e+01,
                      le:5.3849086761474609e+00 }
            -
               depth: 5
               value: 4.
               norm_class_idx: 3
            -
               depth: 5
               value: 3.
               norm_class_idx: 2
            -
               depth: 3
               value: 3.
               norm_class_idx: 2
               splits:
                  - { var:176, quality:1.0275871582031250e+03,
                      le:4.5507077127695084e-02 }
            -
               depth: 4
               value: 4.
               norm_class_idx: 3
               splits:
                  - { var:189, quality:1.2101724243164062e+02,
                      le:1.3958662748336792e-04 }
            -
               depth: 5
               value: 4.
               norm_class_idx: 3
            -
               depth: 5
               value: 3.
               norm_class_idx: 2
            -
               depth: 4
               value: 3.
               norm_class_idx: 2
               splits:
                  - { var:214, quality:9.4504962158203125e+02,
                      le:8.3254709243774414e+00 }
            -
               depth: 5
               value: 3.
               norm_class_idx: 2
            -
               depth: 5
               value: 4.
               norm_class_idx: 3
      -
         nodes:
            -
               depth: 0
               value: 3.
               norm_class_idx: 2
               splits:
                  - { var:176, quality:2.7263273925781250e+03,
                      le:2.5327317416667938e-02 }
            -
               depth: 1
               value: 1.
               norm_class_idx: 0
               splits:
                  - { var:37, quality:1.2706606445312500e+03,
                      le:1.1136000044643879e-02 }
            -
               depth: 2
               value: 1.
               norm_class_idx: 0
               splits:
                  - { var:185, quality:1.2344766845703125e+03,
                      le:3.1751485948916525e-05 }
            -
               depth: 3
               value: 1.
               norm_class_idx: 0
               splits:
                  - { var:160, quality:1.1233420410156250e+03,
                      le:1.6139695048332214e-01 }
            -
               depth: 4
               value: 1.
               norm_class_idx: 0
               splits:
                  - { var:161, quality:1.1256835937500000e+03,
                      le:2.4396926164627075e-05 }
            -
               depth: 5
               value: 1.
               norm_class_idx: 0
            -
               depth: 5
               value: 1.
               norm_class_idx: 0
            -
               depth: 4
               value: 4.
               norm_class_idx: 3
            -
               depth: 3
               value: 1.
               norm_class_idx: 0
               splits:
                  - { var:221, quality:1.3664582824707031e+02,
                      le:1.2424999475479126e-01 }
            -
               depth: 4
               value: 1.
               norm_class_idx: 0
            -
               depth: 4
               value: 1.
               norm_class_idx: 0
               splits:
                  - { var:205, quality:6.5397460937500000e+01,
                      le:9.8420932772569358e-05 }
            -
               depth: 5
               value: 1.
               norm_class_idx: 0
            -
               depth: 5
               value: 4.
               norm_class_idx: 3
            -
               depth: 2
               value: 4.
               norm_class_idx: 3
               splits:
                  - { var:181, quality:6.2035713195800781e+01,
                      le:3.0754083127249032e-05 }
            -
               depth: 3
               value: 1.
               norm_class_idx: 0
            -
               depth: 3
               value: 4.
               norm_class_idx: 3
               splits:
                  - { var:102, quality:56., le:8.8034814596176147e-01 }
            -
               depth: 4
               value: 4.
               norm_class_idx: 3
            -
               depth: 4
               value: 1.
               norm_class_idx: 0
            -
               depth: 1
               value: 3.
               norm_class_idx: 2
               splits:
                  - { var:29, quality:1.8751673583984375e+03,
                      le:-5.7600000873208046e-03 }
            -
               depth: 2
               value: 3.
               norm_class_idx: 2
               splits:
                  - { var:168, quality:8.2451904296875000e+02,
                      le:1.7311124503612518e-01 }
            -
               depth: 3
               value: 4.
               norm_class_idx: 3
               splits:
                  - { var:148, quality:2.2740837097167969e+02,
                      le:-1.9669609069824219e+01 }
            -
               depth: 4
               value: 4.
               norm_class_idx: 3
               splits:
                  - { var:171, quality:1.8309625244140625e+02,
                      le:1.1313188076019287e+00 }
            -
               depth: 5
               value: 4.
               norm_class_idx: 3
            -
               depth: 5
               value: 1.
               norm_class_idx: 0
            -
               depth: 4
               value: 3.
               norm_class_idx: 2
            -
               depth: 3
               value: 3.
               norm_class_idx: 2
               splits:
                  - { var:164, quality:6.8536804199218750e+02,
                      le:1.7575918138027191e-01 }
            -
               depth: 4
               value: 3.
               norm_class_idx: 2
               splits:
                  - { var:231, quality:5.9416755676269531e+01,
                      le:2.4385531246662140e-01 }
            -
               depth: 5
               value: 3.
               norm_class_idx: 2
            -
               depth: 5
               value: 2.
               norm_class_idx: 1
            -
               depth: 4
               value: 3.
               norm_class_idx: 2
               splits:
                  - { var:213, quality:6.6702532958984375e+02,
                      le:5.8854169845581055e+00 }
            -
               depth: 5
               value: 3.
               norm_class_idx: 2
            -
               depth: 5
               value: 3.
               norm_class_idx: 2
            -
               depth: 2
               value: 2.
               norm_class_idx: 1
               splits:
                  - { var:31, quality:1.6196661376953125e+03,
                      le:2.7492516040802002e+00 }
            -
               depth: 3
               value: 2.
               norm_class_idx: 1
               splits:
                  - { var:212, quality:1.3985944824218750e+03,
                      le:6.5098748779296875e+02 }
            -
               depth: 4
               value: 2.
               norm_class_idx: 1
               splits:
                  - { var:164, quality:1.2021516113281250e+03,
                      le:1.3841325044631958e-01 }
            -
               depth: 5
               value: 4.
               norm_class_idx: 3
            -
               depth: 5
               value: 2.
               norm_class_idx: 1
            -
               depth: 4
               value: 1.
               norm_class_idx: 0
            -
               depth: 3
               value: 4.
               norm_class_idx: 3
               splits:
                  - { var:215, quality:7.2092517089843750e+02,
                      le:-9.8557739257812500e+01 }
            -
               depth: 4
               value: 4.
               norm_class_idx: 3
               splits:
                  - { var:217, quality:3.5416061401367188e+02,
                      le:-1.7779123306274414e+01 }
            -
               depth: 5
               value: 4.
               norm_class_idx: 3
            -
               depth: 5
               value: 3.
               norm_class_idx: 2
            -
               depth: 4
               value: 3.
               norm_class_idx: 2
               splits:
                  - { var:217, quality:5.5832873535156250e+02,
                      le:-1.9797273635864258e+01 }
            -
               depth: 5
               value: 4.
               norm_class_idx: 3
            -
               depth: 5
               value: 3.
               norm_class_idx: 2
      -
         nodes:
            -
               depth: 0
               value: 4.
               norm_class_idx: 3
               splits:
                  - { var:224, quality:2.6214714355468750e+03,
                      le:2.5390457361936569e-02 }
            -
               depth: 1
               value: 1.
               norm_class_idx: 0
               splits:
                  - { var:39, quality:1.2491784667968750e+03,
                      le:9.6732862293720245e-02 }
            -
               depth: 2
               value: 1.
               norm_class_idx: 0
               splits:
                  - { var:35, quality:1.2076363525390625e+03,
                      le:9.7333335876464844e-01 }
            -
               depth: 3
               value: 4.
               norm_class_idx: 3
               splits:
                  - { var:152, quality:3.9651340484619141e+01,
                      le:5.5453145503997803e-01 }
            -
               depth: 4
               value: 3.
               norm_class_idx: 2
               splits:
                  - { var:186, quality:18., le:5.1656067371368408e-01 }
            -
               depth: 5
               value: 3.
               norm_class_idx: 2
            -
               depth: 5
               value: 1.
               norm_class_idx: 0
            -
               depth: 4
               value: 4.
               norm_class_idx: 3
               splits:
                  - { var:88, quality:2.7071428298950195e+01,
                      le:8.3000004291534424e-01 }
            -
               depth: 5
               value: 4.
               norm_class_idx: 3
            -
               depth: 5
               value: 1.
               norm_class_idx: 0
            -
               depth: 3
               value: 1.
               norm_class_idx: 0
               splits:
                  - { var:173, quality:1.2169799804687500e+03,
                      le:1.9501702627167106e-04 }
            -
               depth: 4
               value: 1.
               norm_class_idx: 0
               splits:
                  - { var:48, quality:1.1781983642578125e+03,
                      le:2.8119999170303345e-01 }
            -
               depth: 5
               value: 3.
               norm_class_idx: 2
            -
               depth: 5
               value: 1.
               norm_class_idx: 0
            -
               depth: 4
               value: 1.
               norm_class_idx: 0
               splits:
                  - { var:196, quality:7.5548385620117188e+01,
                      le:1.3539272546768188e-01 }
            -
               depth: 5
               value: 1.
               norm_class_idx: 0
            -
               depth: 5
               value: 4.
               norm_class_idx: 3
            -
               depth: 2
               value: 4.
               norm_class_idx: 3
               splits:
                  - { var:144, quality:1.0176999664306641e+02,
                      le:-9.9933567047119141e+00 }
            -
               depth: 3
               value: 4.
               norm_class_idx: 3
               splits:
                  - { var:154, quality:100., le:-7.3875296115875244e-01 }
            -
               depth: 4
               value: 1.
               norm_class_idx: 0
            -
               depth: 4
               value: 4.
               norm_class_idx: 3
            -
               depth: 3
               value: 1.
               norm_class_idx: 0
            -
               depth: 1
               value: 3.
               norm_class_idx: 2
               splits:
                  - { var:188, quality:1.9946248779296875e+03,
                      le:1.7411121726036072e-01 }
            -
               depth: 2
               value: 2.
               norm_class_idx: 1
               splits:
                  - { var:184, quality:1.3297945556640625e+03,
                      le:1.1574586853384972e-02 }
            -
               depth: 3
               value: 4.
               norm_class_idx: 3
               splits:
                  - { var:105, quality:3.9580581665039062e+02,
                      le:1.4114609360694885e-01 }
            -
               depth: 4
               value: 4.
               norm_class_idx: 3
               splits:
                  - { var:205, quality:3.4800689697265625e+02,
                      le:6.8048640969209373e-05 }
            -
               depth: 5
               value: 1.
               norm_class_idx: 0
            -
               depth: 5
               value: 4.
               norm_class_idx: 3
            -
               depth: 4
               value: 2.
               norm_class_idx: 1
               splits:
                  - { var:219, quality:1.5539701843261719e+02,
                      le:1.5799999237060547e-01 }
            -
               depth: 5
               value: 2.
               norm_class_idx: 1
            -
               depth: 5
               value: 3.
               norm_class_idx: 2
            -
               depth: 3
               value: 2.
               norm_class_idx: 1
               splits:
                  - { var:62, quality:1.1038900146484375e+03,
                      le:1.6988160088658333e-02 }
            -
               depth: 4
               value: 2.
               norm_class_idx: 1
               splits:
                  - { var:229, quality:1.0945450439453125e+03,
                      le:1.5736100077629089e-01 }
            -
               depth: 5
               value: 4.
               norm_class_idx: 3
            -
               depth: 5
               value: 2.
               norm_class_idx: 1
            -
               depth: 4
               value: 3.
               norm_class_idx: 2
            -
               depth: 2
               value: 3.
               norm_class_idx: 2
               splits:
                  - { var:229, quality:1.1725925292968750e+03,
                      le:2.4687281250953674e-01 }
            -
               depth: 3
               value: 3.
               norm_class_idx: 2
               splits:
                  - { var:212, quality:1.3513314208984375e+03,
                      le:3.8256286621093750e+02 }
            -
               depth: 4
               value: 4.
               norm_class_idx: 3
               splits:
                  - { var:206, quality:4.4464254760742188e+02,
                      le:6.1617028713226318e-01 }
            -
               depth: 5
               value: 4.
               norm_class_idx: 3
            -
               depth: 5
               value: 3.
               norm_class_idx: 2
            -
               depth: 4
               value: 3.
               norm_class_idx: 2
               splits:
                  - { var:96, quality:9.5985168457031250e+02,
                      le:9.2280000448226929e-01 }
            -
               depth: 5
               value: 2.
               norm_class_idx: 1
            -
               depth: 5
               value: 3.
               norm_class_idx: 2
            -
               depth: 3
               value: 4.
               norm_class_idx: 3
               splits:
                  - { var:148, quality:2.6650000000000000e+02,
                      le:-1.9001976013183594e+01 }
            -
               depth: 4
               value: 4.
               norm_class_idx: 3
            -
               depth: 4
               value: 1.
               norm_class_idx: 0
      -
         nodes:
            -
               depth: 0
               value: 2.
               norm_class_idx: 1
               splits:
                  - { var:222, quality:2.4708923339843750e+03,
                      le:1.4934998750686646e-01 }
            -
               depth: 1
               value: 1.
               norm_class_idx: 0
               splits:
                  - { var:193, quality:1.1491872558593750e+03,
                      le:2.4516757548553869e-05 }
            -
               depth: 2
               value: 1.
               norm_class_idx: 0
               splits:
                  - { var:209, quality:9.3869976806640625e+02,
                      le:5.3362302423920482e-05 }
            -
               depth: 3
               value: 1.
               norm_class_idx: 0
               splits:
                  - { var:173, quality:8.6866345214843750e+02,
                      le:1.7334191943518817e-04 }
            -
               depth: 4
               value: 1.
               norm_class_idx: 0
               splits:
                  - { var:135, quality:8.2942108154296875e+02,
                      le:9.6477222442626953e+00 }
            -
               depth: 5
               value: 1.
               norm_class_idx: 0
            -
               depth: 5
               value: 1.
               norm_class_idx: 0
            -
               depth: 4
               value: 1.
               norm_class_idx: 0
               splits:
                  - { var:156, quality:4.6463768005371094e+01,
                      le:1.4314490556716919e-01 }
            -
               depth: 5
               value: 1.
               norm_class_idx: 0
            -
               depth: 5
               value: 2.
               norm_class_idx: 1
            -
               depth: 3
               value: 1.
               norm_class_idx: 0
               splits:
                  - { var:204, quality:9.3068695068359375e+01,
                      le:1.7893378436565399e-01 }
            -
               depth: 4
               value: 1.
               norm_class_idx: 0
               splits:
                  - { var:23, quality:7.2222221374511719e+01,
                      le:8.8772563934326172e+00 }
            -
               depth: 5
               value: 1.
               norm_class_idx: 0
            -
               depth: 5
               value: 1.
               norm_class_idx: 0
            -
               depth: 4
               value: 4.
               norm_class_idx: 3
               splits:
                  - { var:188, quality:3.8571430206298828e+01,
                      le:1.3718873262405396e-01 }
            -
               depth: 5
               value: 4.
               norm_class_idx: 3
            -
               depth: 5
               value: 1.
               norm_class_idx: 0
            -
               depth: 2
               value: 1.
               norm_class_idx: 0
               splits:
                  - { var:184, quality:3.0079675292968750e+02,
                      le:8.9840395376086235e-03 }
            -
               depth: 3
               value: 1.
               norm_class_idx: 0
               splits:
                  - { var:172, quality:2.2736875915527344e+02,
                      le:-6.2358947470784187e-03 }
            -
               depth: 4
               value: 1.
               norm_class_idx: 0
               splits:
                  - { var:219, quality:117., le:1.5727499127388000e-01 }
            -
               depth: 5
               value: 1.
               norm_class_idx: 0
            -
               depth: 5
               value: 3.
               norm_class_idx: 2
            -
               depth: 4
               value: 1.
               norm_class_idx: 0
               splits:
                  - { var:127, quality:1.3504600524902344e+02,
                      le:9.9044475555419922e+00 }
            -
               depth: 5
               value: 1.
               norm_class_idx: 0
            -
               depth: 5
               value: 4.
               norm_class_idx: 3
            -
               depth: 3
               value: 2.
               norm_class_idx: 1
               splits:
                  - { var:104, quality:1.5341970825195312e+02,
                      le:8.4920001029968262e-01 }
            -
               depth: 4
               value: 2.
               norm_class_idx: 1
               splits:
                  - { var:165, quality:1.1500912475585938e+02,
                      le:5.4913260100875050e-05 }
            -
               depth: 5
               value: 1.
               norm_class_idx: 0
            -
               depth: 5
               value: 2.
               norm_class_idx: 1
            -
               depth: 4
               value: 4.
               norm_class_idx: 3
               splits:
                  - { var:164, quality:7.0070587158203125e+01,
                      le:1.3194490969181061e-01 }
            -
               depth: 5
               value: 1.
               norm_class_idx: 0
            -
               depth: 5
               value: 4.
               norm_class_idx: 3
            -
               depth: 1
               value: 3.
               norm_class_idx: 2
               splits:
                  - { var:110, quality:1.6395444335937500e+03,
                      le:1.6019456088542938e-01 }
            -
               depth: 2
               value: 3.
               norm_class_idx: 2
               splits:
                  - { var:39, quality:1.7585726318359375e+03,
                      le:1.0299998521804810e+00 }
            -
               depth: 3
               value: 2.
               norm_class_idx: 1
               splits:
                  - { var:209, quality:7.1993078613281250e+02,
                      le:2.0307799786678515e-05 }
            -
               depth: 4
               value: 1.
               norm_class_idx: 0
               splits:
                  - { var:161, quality:1.0643750000000000e+02,
                      le:9.2430655058706179e-06 }
            -
               depth: 5
               value: 1.
               norm_class_idx: 0
            -
               depth: 5
               value: 2.
               norm_class_idx: 1
            -
               depth: 4
               value: 2.
               norm_class_idx: 1
               splits:
                  - { var:212, quality:8.5534527587890625e+02,
                      le:4.7035943603515625e+02 }
            -
               depth: 5
               value: 3.
               norm_class_idx: 2
            -
               depth: 5
               value: 2.
               norm_class_idx: 1
            -
               depth: 3
               value: 3.
               norm_class_idx: 2
               splits:
                  - { var:212, quality:1.6682945556640625e+03,
                      le:3.8295709228515625e+02 }
            -
               depth: 4
               value: 4.
               norm_class_idx: 3
               splits:
                  - { var:183, quality:7.7874456787109375e+02,
                      le:1.9444361329078674e-01 }
            -
               depth: 5
               value: 4.
               norm_class_idx: 3
            -
               depth: 5
               value: 3.
               norm_class_idx: 2
            -
               depth: 4
               value: 3.
               norm_class_idx: 2
               splits:
                  - { var:50, quality:1.1033565673828125e+03,
                      le:1.9683798775076866e-02 }
            -
               depth: 5
               value: 3.
               norm_class_idx: 2
            -
               depth: 5
               value: 4.
               norm_class_idx: 3
            -
               depth: 2
               value: 2.
               norm_class_idx: 1
               splits:
                  - { var:51, quality:3.6116140747070312e+02,
                      le:9.9000000953674316e-01 }
            -
               depth: 3
               value: 2.
               norm_class_idx: 1
               splits:
                  - { var:152, quality:3.8476031494140625e+02,
                      le:5.9093856811523438e-01 }
            -
               depth: 4
               value: 2.
               norm_class_idx: 1
               splits:
                  - { var:212, quality:2.9057928466796875e+02,
                      le:7.5968383789062500e+02 }
            -
               depth: 5
               value: 2.
               norm_class_idx: 1
            -
               depth: 5
               value: 1.
               norm_class_idx: 0
            -
               depth: 4
               value: 2.
               norm_class_idx: 1
               splits:
                  - { var:54, quality:1.6310122680664062e+02,
                      le:5.4592514038085938e-01 }
            -
               depth: 5
               value: 4.
               norm_class_idx: 3
            -
               depth: 5
               value: 2.
               norm_class_idx: 1
            -
               depth: 3
               value: 1.
               norm_class_idx: 0
               splits:
                  - { var:183, quality:3.9733333587646484e+01,
                      le:-8.4672164916992188e-01 }
            -
               depth: 4
               value: 2.
               norm_class_idx: 1
            -
               depth: 4
               value: 1.
               norm_class_idx: 0
               splits:
                  - { var:226, quality:4.0258930206298828e+01,
                      le:1.0072970762848854e-02 }
            -
               depth: 5
               value: 1.
               norm_class_idx: 0
            -
               depth: 5
               value: 4.
               norm_class_idx: 3
      -
         nodes:
            -
               depth: 0
               value: 2.
               norm_class_idx: 1
               splits:
                  - { var:168, quality:2.5210009765625000e+03,
                      le:1.5257960557937622e-01 }
            -
               depth: 1
               value: 1.
               norm_class_idx: 0
               splits:
                  - { var:176, quality:1.3997297363281250e+03,
                      le:3.1150102615356445e-02 }
            -
               depth: 2
               value: 1.
               norm_class_idx: 0
               splits:
                  - { var:205, quality:1.2366508789062500e+03,
                      le:1.1293280113022774e-04 }
            -
               depth: 3
               value: 1.
               norm_class_idx: 0
               splits:
                  - { var:125, quality:1.1621090087890625e+03,
                      le:-6.3475203514099121e-01 }
            -
               depth: 4
               value: 4.
               norm_class_idx: 3
            -
               depth: 4
               value: 1.
               norm_class_idx: 0
               splits:
                  - { var:125, quality:1.1586323242187500e+03,
                      le:-3.8284799456596375e-01 }
            -
               depth: 5
               value: 1.
               norm_class_idx: 0
            -
               depth: 5
               value: 1.
               norm_class_idx: 0
            -
               depth: 3
               value: 1.
               norm_class_idx: 0
               splits:
                  - { var:148, quality:1.0124765777587891e+02,
                      le:-1.6393056869506836e+01 }
            -
               depth: 4
               value: 1.
               norm_class_idx: 0
               splits:
                  - { var:191, quality:7.0256408691406250e+01,
                      le:-1.7613283395767212e+00 }
            -
               depth: 5
               value: 4.
               norm_class_idx: 3
            -
               depth: 5
               value: 1.
               norm_class_idx: 0
            -
               depth: 4
               value: 4.
               norm_class_idx: 3
               splits:
                  - { var:153, quality:5.2965518951416016e+01,
                      le:5.0120133906602859e-02 }
            -
               depth: 5
               value: 4.
               norm_class_idx: 3
            -
               depth: 5
               value: 1.
               norm_class_idx: 0
            -
               depth: 2
               value: 4.
               norm_class_idx: 3
               splits:
                  - { var:212, quality:3.2555685424804688e+02,
                      le:5.8182666015625000e+02 }
            -
               depth: 3
               value: 4.
               norm_class_idx: 3
               splits:
                  - { var:108, quality:2.3417977905273438e+02,
                      le:1.9999999552965164e-02 }
            -
               depth: 4
               value: 4.
               norm_class_idx: 3
               splits:
                  - { var:228, quality:178., le:1.2590317428112030e-01 }
            -
               depth: 5
               value: 1.
               norm_class_idx: 0
            -
               depth: 5
               value: 4.
               norm_class_idx: 3
            -
               depth: 4
               value: 2.
               norm_class_idx: 1
               splits:
                  - { var:144, quality:1.1127716827392578e+02,
                      le:-1.2393647193908691e+01 }
            -
               depth: 5
               value: 4.
               norm_class_idx: 3
            -
               depth: 5
               value: 2.
               norm_class_idx: 1
            -
               depth: 3
               value: 2.
               norm_class_idx: 1
               splits:
                  - { var:144, quality:1.6126213073730469e+02,
                      le:-3.3891201019287109e+00 }
            -
               depth: 4
               value: 2.
               norm_class_idx: 1
               splits:
                  - { var:118, quality:1.3654782104492188e+02,
                      le:4.5662719756364822e-02 }
            -
               depth: 5
               value: 1.
               norm_class_idx: 0
            -
               depth: 5
               value: 2.
               norm_class_idx: 1
            -
               depth: 4
               value: 1.
               norm_class_idx: 0
            -
               depth: 1
               value: 3.
               norm_class_idx: 2
               splits:
                  - { var:156, quality:2.1052707519531250e+03,
                      le:1.6056329011917114e-01 }
            -
               depth: 2
               value: 2.
               norm_class_idx: 1
               splits:
                  - { var:152, quality:1.0414886474609375e+03,
                      le:5.9412825107574463e-01 }
            -
               depth: 3
               value: 2.
               norm_class_idx: 1
               splits:
                  - { var:184, quality:8.6500463867187500e+02,
                      le:6.6536972299218178e-03 }
            -
               depth: 4
               value: 1.
               norm_class_idx: 0
               splits:
                  - { var:30, quality:1.0928125000000000e+02,
                      le:1.6988160088658333e-02 }
            -
               depth: 5
               value: 1.
               norm_class_idx: 0
            -
               depth: 5
               value: 1.
               norm_class_idx: 0
            -
               depth: 4
               value: 2.
               norm_class_idx: 1
               splits:
                  - { var:69, quality:8.6685607910156250e+02,
                      le:1.7087999731302261e-02 }
            -
               depth: 5
               value: 2.
               norm_class_idx: 1
            -
               depth: 5
               value: 3.
               norm_class_idx: 2
            -
               depth: 3
               value: 2.
               norm_class_idx: 1
               splits:
                  - { var:156, quality:3.9972189331054688e+02,
                      le:1.5259897708892822e-01 }
            -
               depth: 4
               value: 2.
               norm_class_idx: 1
               splits:
                  - { var:172, quality:3.4950213623046875e+02,
                      le:3.6231704056262970e-02 }
            -
               depth: 5
               value: 4.
               norm_class_idx: 3
            -
               depth: 5
               value: 2.
               norm_class_idx: 1
            -
               depth: 4
               value: 4.
               norm_class_idx: 3
               splits:
                  - { var:197, quality:1.7930679321289062e+02,
                      le:2.7724850951926783e-05 }
            -
               depth: 5
               value: 1.
               norm_class_idx: 0
            -
               depth: 5
               value: 4.
               norm_class_idx: 3
            -
               depth: 2
               value: 3.
               norm_class_idx: 2
               splits:
                  - { var:192, quality:1.3911824951171875e+03,
                      le:2.1201884746551514e-01 }
            -
               depth: 3
               value: 3.
               norm_class_idx: 2
               splits:
                  - { var:188, quality:1.2572592773437500e+03,
                      le:1.7901417613029480e-01 }
            -
               depth: 4
               value: 4.
               norm_class_idx: 3
               splits:
                  - { var:213, quality:5.5906494140625000e+02,
                      le:6.7526044845581055e+00 }
            -
               depth: 5
               value: 4.
               norm_class_idx: 3
            -
               depth: 5
               value: 3.
               norm_class_idx: 2
            -
               depth: 4
               value: 3.
               norm_class_idx: 2
               splits:
                  - { var:184, quality:1.0326447753906250e+03,
                      le:6.0511287301778793e-03 }
            -
               depth: 5
               value: 4.
               norm_class_idx: 3
            -
               depth: 5
               value: 3.
               norm_class_idx: 2
            -
               depth: 3
               value: 4.
               norm_class_idx: 3
               splits:
                  - { var:189, quality:3.0610388183593750e+02,
                      le:2.0968418539268896e-05 }
            -
               depth: 4
               value: 1.
               norm_class_idx: 0
            -
               depth: 4
               value: 4.
               norm_class_idx: 3
               splits:
                  - { var:197, quality:3.0639999389648438e+02,
                      le:4.4134758354630321e-05 }
            -
               depth: 5
               value: 1.
               norm_class_idx: 0
            -
               depth: 5
               value: 4.
               norm_class_idx: 3
      -
         nodes:
            -
               depth: 0
               value: 2.
               norm_class_idx: 1
               splits:
                  - { var:233, quality:2.4569221191406250e+03,
                      le:4.6973657226562500e+02 }
            -
               depth: 1
               value: 3.
               norm_class_idx: 2
               splits:
                  - { var:165, quality:1.6760959472656250e+03,
                      le:3.0477222026092932e-05 }
            -
               depth: 2
               value: 1.
               norm_class_idx: 0
               splits:
                  - { var:176, quality:4.8587878417968750e+02,
                      le:3.7021115422248840e-02 }
            -
               depth: 3
               value: 1.
               norm_class_idx: 0
            -
               depth: 3
               value: 3.
               norm_class_idx: 2
               splits:
                  - { var:161, quality:6.4818183898925781e+01,
                      le:7.0016831159591675e-06 }
            -
               depth: 4
               value: 4.
               norm_class_idx: 3
            -
               depth: 4
               value: 3.
               norm_class_idx: 2
               splits:
                  - { var:1, quality:5.8727272033691406e+01,
                      le:2.4108959734439850e-01 }
            -
               depth: 5
               value: 3.
               norm_class_idx: 2
            -
               depth: 5
               value: 2.
               norm_class_idx: 1
            -
               depth: 2
               value: 3.
               norm_class_idx: 2
               splits:
                  - { var:144, quality:1.8998718261718750e+03,
                      le:-1.1256238937377930e+01 }
            -
               depth: 3
               value: 4.
               norm_class_idx: 3
               splits:
                  - { var:36, quality:9.9796368408203125e+02,
                      le:1.9999999552965164e-02 }
            -
               depth: 4
               value: 4.
               norm_class_idx: 3
               splits:
                  - { var:224, quality:5.5495556640625000e+02,
                      le:2.6588022708892822e-02 }
            -
               depth: 5
               value: 1.
               norm_class_idx: 0
            -
               depth: 5
               value: 4.
               norm_class_idx: 3
            -
               depth: 4
               value: 4.
               norm_class_idx: 3
               splits:
                  - { var:204, quality:6.4127410888671875e+02,
                      le:2.6244705915451050e-01 }
            -
               depth: 5
               value: 4.
               norm_class_idx: 3
            -
               depth: 5
               value: 3.
               norm_class_idx: 2
            -
               depth: 3
               value: 3.
               norm_class_idx: 2
               splits:
                  - { var:29, quality:1.0036933593750000e+03,
                      le:3.5135999321937561e-02 }
            -
               depth: 4
               value: 3.
               norm_class_idx: 2
               splits:
                  - { var:36, quality:8.7713037109375000e+02,
                      le:1.9999999552965164e-02 }
            -
               depth: 5
               value: 3.
               norm_class_idx: 2
            -
               depth: 5
               value: 3.
               norm_class_idx: 2
            -
               depth: 4
               value: 3.
               norm_class_idx: 2
               splits:
                  - { var:152, quality:2.0268066406250000e+02,
                      le:2.3462288081645966e-01 }
            -
               depth: 5
               value: 2.
               norm_class_idx: 1
            -
               depth: 5
               value: 3.
               norm_class_idx: 2
            -
               depth: 1
               value: 2.
               norm_class_idx: 1
               splits:
                  - { var:176, quality:1.9350252685546875e+03,
                      le:4.4315520673990250e-02 }
            -
               depth: 2
               value: 1.
               norm_class_idx: 0
               splits:
                  - { var:164, quality:8.6827246093750000e+02,
                      le:1.2936633825302124e-01 }
            -
               depth: 3
               value: 1.
               norm_class_idx: 0
               splits:
                  - { var:197, quality:6.2937207031250000e+02,
                      le:3.0900664569344372e-05 }
            -
               depth: 4
               value: 1.
               norm_class_idx: 0
            -
               depth: 4
               value: 1.
               norm_class_idx: 0
               splits:
                  - { var:213, quality:8.0666664123535156e+01,
                      le:1.2386457824707031e+02 }
            -
               depth: 5
               value: 1.
               norm_class_idx: 0
            -
               depth: 5
               value: 1.
               norm_class_idx: 0
            -
               depth: 3
               value: 1.
               norm_class_idx: 0
               splits:
                  - { var:127, quality:2.6231130981445312e+02,
                      le:1.0313047409057617e+01 }
            -
               depth: 4
               value: 1.
               norm_class_idx: 0
               splits:
                  - { var:209, quality:2.9128103637695312e+02,
                      le:4.8357993364334106e-05 }
            -
               depth: 5
               value: 1.
               norm_class_idx: 0
            -
               depth: 5
               value: 1.
               norm_class_idx: 0
            -
               depth: 4
               value: 4.
               norm_class_idx: 3
               splits:
                  - { var:232, quality:3.2242424011230469e+01,
                      le:1.4469854533672333e-01 }
            -
               depth: 5
               value: 2.
               norm_class_idx: 1
            -
               depth: 5
               value: 4.
               norm_class_idx: 3
            -
               depth: 2
               value: 2.
               norm_class_idx: 1
               splits:
                  - { var:180, quality:1.3235830078125000e+03,
                      le:1.1879142373800278e-02 }
            -
               depth: 3
               value: 1.
               norm_class_idx: 0
               splits:
                  - { var:221, quality:1.3385382080078125e+02,
                      le:1.4779999852180481e-01 }
            -
               depth: 4
               value: 1.
               norm_class_idx: 0
               splits:
                  - { var:128, quality:21., le:9.2480003833770752e-01 }
            -
               depth: 5
               value: 2.
               norm_class_idx: 1
            -
               depth: 5
               value: 1.
               norm_class_idx: 0
            -
               depth: 4
               value: 1.
               norm_class_idx: 0
               splits:
                  - { var:108, quality:1.2659999847412109e+02,
                      le:3.0000001192092896e-01 }
            -
               depth: 5
               value: 1.
               norm_class_idx: 0
            -
               depth: 5
               value: 2.
               norm_class_idx: 1
            -
               depth: 3
               value: 2.
               norm_class_idx: 1
               splits:
                  - { var:164, quality:1.2586539306640625e+03,
                      le:1.4104591310024261e-01 }
            -
               depth: 4
               value: 2.
               norm_class_idx: 1
               splits:
                  - { var:161, quality:1.1590816497802734e+02,
                      le:1.6811613022582605e-05 }
            -
               depth: 5
               value: 4.
               norm_class_idx: 3
            -
               depth: 5
               value: 2.
               norm_class_idx: 1
            -
               depth: 4
               value: 2.
               norm_class_idx: 1
               splits:
                  - { var:180, quality:1.1918898925781250e+03,
                      le:2.4342406541109085e-02 }
            -
               depth: 5
               value: 2.
               norm_class_idx: 1
            -
               depth: 5
               value: 2.
               norm_class_idx: 1
      -
         nodes:
            -
               depth: 0
               value: 4.
               norm_class_idx: 3
               splits:
                  - { var:55, quality:2.5945634765625000e+03,
                      le:2.5006902217864990e-01 }
            -
               depth: 1
               value: 1.
               norm_class_idx: 0
               splits:
                  - { var:50, quality:1.2601816406250000e+03,
                      le:-5.2061641216278076e-01 }
            -
               depth: 2
               value: 2.
               norm_class_idx: 1
               splits:
                  - { var:156, quality:1.1690001678466797e+02,
                      le:1.5096835792064667e-01 }
            -
               depth: 3
               value: 2.
               norm_class_idx: 1
               splits:
                  - { var:185, quality:1.0957407379150391e+02,
                      le:2.0484401829889975e-05 }
            -
               depth: 4
               value: 1.
               norm_class_idx: 0
               splits:
                  - { var:225, quality:2.4600000381469727e+01,
                      le:2.2230725735425949e-02 }
            -
               depth: 5
               value: 1.
               norm_class_idx: 0
            -
               depth: 5
               value: 4.
               norm_class_idx: 3
            -
               depth: 4
               value: 2.
               norm_class_idx: 1
               splits:
                  - { var:180, quality:1.0666143798828125e+02,
                      le:1.7503950744867325e-02 }
            -
               depth: 5
               value: 2.
               norm_class_idx: 1
            -
               depth: 5
               value: 4.
               norm_class_idx: 3
            -
               depth: 3
               value: 1.
               norm_class_idx: 0
               splits:
                  - { var:205, quality:29., le:1.7591317009646446e-04 }
            -
               depth: 4
               value: 1.
               norm_class_idx: 0
            -
               depth: 4
               value: 4.
               norm_class_idx: 3
            -
               depth: 2
               value: 1.
               norm_class_idx: 0
               splits:
                  - { var:205, quality:1.3378530273437500e+03,
                      le:8.9783221483230591e-05 }
            -
               depth: 3
               value: 1.
               norm_class_idx: 0
               splits:
                  - { var:185, quality:1.1747882080078125e+03,
                      le:5.3384319471661001e-05 }
            -
               depth: 4
               value: 1.
               norm_class_idx: 0
               splits:
                  - { var:114, quality:1.1497822265625000e+03,
                      le:9.4170117378234863e-01 }
            -
               depth: 5
               value: 1.
               norm_class_idx: 0
            -
               depth: 5
               value: 1.
               norm_class_idx: 0
            -
               depth: 4
               value: 1.
               norm_class_idx: 0
               splits:
                  - { var:204, quality:6.1290321350097656e+01,
                      le:1.7827792465686798e-01 }
            -
               depth: 5
               value: 1.
               norm_class_idx: 0
            -
               depth: 5
               value: 4.
               norm_class_idx: 3
            -
               depth: 3
               value: 4.
               norm_class_idx: 3
               splits:
                  - { var:161, quality:2.1353414916992188e+02,
                      le:2.1856900275452062e-05 }
            -
               depth: 4
               value: 4.
               norm_class_idx: 3
               splits:
                  - { var:219, quality:2.0696556091308594e+02,
                      le:1.3694998621940613e-01 }
            -
               depth: 5
               value: 1.
               norm_class_idx: 0
            -
               depth: 5
               value: 4.
               norm_class_idx: 3
            -
               depth: 4
               value: 1.
               norm_class_idx: 0
               splits:
                  - { var:168, quality:7.0758239746093750e+01,
                      le:1.4274898171424866e-01 }
            -
               depth: 5
               value: 1.
               norm_class_idx: 0
            -
               depth: 5
               value: 2.
               norm_class_idx: 1
            -
               depth: 1
               value: 3.
               norm_class_idx: 2
               splits:
                  - { var:156, quality:2.1774335937500000e+03,
                      le:1.6056329011917114e-01 }
            -
               depth: 2
               value: 2.
               norm_class_idx: 1
               splits:
                  - { var:184, quality:1.1257778320312500e+03,
                      le:7.0692645385861397e-03 }
            -
               depth: 3
               value: 1.
               norm_class_idx: 0
               splits:
                  - { var:233, quality:1.1534579467773438e+02,
                      le:6.5471142578125000e+02 }
            -
               depth: 4
               value: 3.
               norm_class_idx: 2
               splits:
                  - { var:161, quality:5.3505748748779297e+01,
                      le:1.1280179023742676e-05 }
            -
               depth: 5
               value: 1.
               norm_class_idx: 0
            -
               depth: 5
               value: 3.
               norm_class_idx: 2
            -
               depth: 4
               value: 1.
               norm_class_idx: 0
            -
               depth: 3
               value: 2.
               norm_class_idx: 1
               splits:
                  - { var:196, quality:1.1359461669921875e+03,
                      le:2.0320948958396912e-01 }
            -
               depth: 4
               value: 2.
               norm_class_idx: 1
               splits:
                  - { var:157, quality:1.1488425292968750e+03,
                      le:7.8827142715454102e-06 }
            -
               depth: 5
               value: 4.
               norm_class_idx: 3
            -
               depth: 5
               value: 2.
               norm_class_idx: 1
            -
               depth: 4
               value: 4.
               norm_class_idx: 3
               splits:
                  - { var:173, quality:9.3921737670898438e+01,
                      le:2.6070949388667941e-04 }
            -
               depth: 5
               value: 4.
               norm_class_idx: 3
            -
               depth: 5
               value: 3.
               norm_class_idx: 2
            -
               depth: 2
               value: 3.
               norm_class_idx: 2
               splits:
                  - { var:233, quality:1.6009608154296875e+03,
                      le:4.0254348754882812e+02 }
            -
               depth: 3
               value: 4.
               norm_class_idx: 3
               splits:
                  - { var:16, quality:8.9805047607421875e+02,
                      le:9.6160000562667847e-01 }
            -
               depth: 4
               value: 3.
               norm_class_idx: 2
            -
               depth: 4
               value: 4.
               norm_class_idx: 3
               splits:
                  - { var:171, quality:7.9396838378906250e+02,
                      le:6.6777336597442627e-01 }
            -
               depth: 5
               value: 4.
               norm_class_idx: 3
            -
               depth: 5
               value: 3.
               norm_class_idx: 2
            -
               depth: 3
               value: 3.
               norm_class_idx: 2
               splits:
                  - { var:204, quality:9.9056079101562500e+02,
                      le:2.2052267193794250e-01 }
            -
               depth: 4
               value: 4.
               norm_class_idx: 3
               splits:
                  - { var:176, quality:158., le:4.5580528676509857e-02 }
            -
               depth: 5
               value: 4.
               norm_class_idx: 3
            -
               depth: 5
               value: 3.
               norm_class_idx: 2
            -
               depth: 4
               value: 3.
               norm_class_idx: 2
               splits:
                  - { var:232, quality:9.2206225585937500e+02,
                      le:2.8256642818450928e-01 }
            -
               depth: 5
               value: 3.
               norm_class_idx: 2
            -
               depth: 5
               value: 1.
               norm_class_idx: 0
      -
         nodes:
            -
               depth: 0
               value: 4.
               norm_class_idx: 3
               splits:
                  - { var:119, quality:2.4777854003906250e+03,
                      le:1.2742099761962891e+00 }
            -
               depth: 1
               value: 1.
               norm_class_idx: 0
               splits:
                  - { var:192, quality:1.0109518432617188e+03,
                      le:1.2729410827159882e-01 }
            -
               depth: 2
               value: 1.
               norm_class_idx: 0
               splits:
                  - { var:50, quality:5.7521734619140625e+02,
                      le:9.3778854608535767e-01 }
            -
               depth: 3
               value: 1.
               norm_class_idx: 0
               splits:
                  - { var:196, quality:5.7466235351562500e+02,
                      le:1.3547587394714355e-01 }
            -
               depth: 4
               value: 1.
               norm_class_idx: 0
            -
               depth: 4
               value: 1.
               norm_class_idx: 0
               splits:
                  - { var:156, quality:6.6784034729003906e+01,
                      le:1.4123725891113281e-01 }
            -
               depth: 5
               value: 1.
               norm_class_idx: 0
            -
               depth: 5
               value: 4.
               norm_class_idx: 3
            -
               depth: 3
               value: 2.
               norm_class_idx: 1
            -
               depth: 2
               value: 1.
               norm_class_idx: 0
               splits:
                  - { var:177, quality:6.3621502685546875e+02,
                      le:2.8691877378150821e-04 }
            -
               depth: 3
               value: 1.
               norm_class_idx: 0
               splits:
                  - { var:218, quality:4.9271881103515625e+02,
                      le:1.2396818399429321e-01 }
            -
               depth: 4
               value: 1.
               norm_class_idx: 0
               splits:
                  - { var:172, quality:3.4111110687255859e+01,
                      le:-6.8910103291273117e-03 }
            -
               depth: 5
               value: 1.
               norm_class_idx: 0
            -
               depth: 5
               value: 4.
               norm_class_idx: 3
            -
               depth: 4
               value: 1.
               norm_class_idx: 0
               splits:
                  - { var:145, quality:4.6901699829101562e+02,
                      le:7.2644555568695068e-01 }
            -
               depth: 5
               value: 4.
               norm_class_idx: 3
            -
               depth: 5
               value: 1.
               norm_class_idx: 0
            -
               depth: 3
               value: 4.
               norm_class_idx: 3
               splits:
                  - { var:226, quality:1.6602844238281250e+02,
                      le:-8.6858551949262619e-03 }
            -
               depth: 4
               value: 1.
               norm_class_idx: 0
            -
               depth: 4
               value: 4.
               norm_class_idx: 3
               splits:
                  - { var:215, quality:1.6862652587890625e+02,
                      le:8.5421352386474609e+00 }
            -
               depth: 5
               value: 4.
               norm_class_idx: 3
            -
               depth: 5
               value: 1.
               norm_class_idx: 0
            -
               depth: 1
               value: 3.
               norm_class_idx: 2
               splits:
                  - { var:188, quality:1.9929820556640625e+03,
                      le:1.7367017269134521e-01 }
            -
               depth: 2
               value: 2.
               norm_class_idx: 1
               splits:
                  - { var:177, quality:1.1941503906250000e+03,
                      le:6.8519148044288158e-05 }
            -
               depth: 3
               value: 1.
               norm_class_idx: 0
               splits:
                  - { var:176, quality:1.9928735351562500e+02,
                      le:6.8180575966835022e-02 }
            -
               depth: 4
               value: 1.
               norm_class_idx: 0
               splits:
                  - { var:17, quality:1.8919486999511719e+02,
                      le:2.4108959734439850e-01 }
            -
               depth: 5
               value: 1.
               norm_class_idx: 0
            -
               depth: 5
               value: 1.
               norm_class_idx: 0
            -
               depth: 4
               value: 2.
               norm_class_idx: 1
               splits:
                  - { var:112, quality:2.4832536697387695e+01,
                      le:6.2407499551773071e-01 }
            -
               depth: 5
               value: 4.
               norm_class_idx: 3
            -
               depth: 5
               value: 2.
               norm_class_idx: 1
            -
               depth: 3
               value: 2.
               norm_class_idx: 1
               splits:
                  - { var:224, quality:1.2209722900390625e+03,
                      le:6.2582865357398987e-02 }
            -
               depth: 4
               value: 4.
               norm_class_idx: 3
               splits:
                  - { var:25, quality:4.4298123168945312e+02,
                      le:1.1268864870071411e+00 }
            -
               depth: 5
               value: 2.
               norm_class_idx: 1
            -
               depth: 5
               value: 3.
               norm_class_idx: 2
            -
               depth: 4
               value: 2.
               norm_class_idx: 1
               splits:
                  - { var:185, quality:9.3410919189453125e+02,
                      le:7.0659985067322850e-04 }
            -
               depth: 5
               value: 2.
               norm_class_idx: 1
            -
               depth: 5
               value: 3.
               norm_class_idx: 2
            -
               depth: 2
               value: 3.
               norm_class_idx: 2
               splits:
                  - { var:221, quality:1.1688234863281250e+03,
                      le:2.1889999508857727e-01 }
            -
               depth: 3
               value: 3.
               norm_class_idx: 2
               splits:
                  - { var:217, quality:1.0841757812500000e+03,
                      le:-1.8810266494750977e+01 }
            -
               depth: 4
               value: 4.
               norm_class_idx: 3
               splits:
                  - { var:196, quality:5.4286358642578125e+02,
                      le:2.0865339040756226e-01 }
            -
               depth: 5
               value: 4.
               norm_class_idx: 3
            -
               depth: 5
               value: 3.
               norm_class_idx: 2
            -
               depth: 4
               value: 3.
               norm_class_idx: 2
               splits:
                  - { var:196, quality:6.8283746337890625e+02,
                      le:2.0373526215553284e-01 }
            -
               depth: 5
               value: 3.
               norm_class_idx: 2
            -
               depth: 5
               value: 3.
               norm_class_idx: 2
            -
               depth: 3
               value: 4.
               norm_class_idx: 3
               splits:
                  - { var:33, quality:3.0637377929687500e+02,
                      le:1.4114609360694885e-01 }
            -
               depth: 4
               value: 4.
               norm_class_idx: 3
               splits:
                  - { var:166, quality:2.9738015747070312e+02,
                      le:5.8307570219039917e-01 }
            -
               depth: 5
               value: 4.
               norm_class_idx: 3
            -
               depth: 5
               value: 3.
               norm_class_idx: 2
            -
               depth: 4
               value: 3.
               norm_class_idx: 2
      -
         nodes:
            -
               depth: 0
               value: 4.
               norm_class_idx: 3
               splits:
                  - { var:156, quality:2.5169729003906250e+03,
                      le:1.6129080951213837e-01 }
            -
               depth: 1
               value: 1.
               norm_class_idx: 0
               splits:
                  - { var:172, quality:2.2019467773437500e+03,
                      le:1.2022657319903374e-02 }
            -
               depth: 2
               value: 1.
               norm_class_idx: 0
               splits:
                  - { var:165, quality:1.2177425537109375e+03,
                      le:4.0735430957283825e-05 }
            -
               depth: 3
               value: 1.
               norm_class_idx: 0
               splits:
                  - { var:200, quality:1.0791420898437500e+03,
                      le:2.0137763023376465e-01 }
            -
               depth: 4
               value: 1.
               norm_class_idx: 0
               splits:
                  - { var:201, quality:1.0802823486328125e+03,
                      le:9.7321346402168274e-05 }
            -
               depth: 5
               value: 1.
               norm_class_idx: 0
            -
               depth: 5
               value: 4.
               norm_class_idx: 3
            -
               depth: 4
               value: 2.
               norm_class_idx: 1
               splits:
                  - { var:150, quality:9.5555553436279297e+00,
                      le:-8.8687956333160400e-01 }
            -
               depth: 5
               value: 3.
               norm_class_idx: 2
            -
               depth: 5
               value: 2.
               norm_class_idx: 1
            -
               depth: 3
               value: 1.
               norm_class_idx: 0
               splits:
                  - { var:27, quality:1.7549786376953125e+02,
                      le:9.0999996662139893e-01 }
            -
               depth: 4
               value: 3.
               norm_class_idx: 2
               splits:
                  - { var:134, quality:4.1290908813476562e+01,
                      le:8.2615628838539124e-02 }
            -
               depth: 5
               value: 3.
               norm_class_idx: 2
            -
               depth: 5
               value: 4.
               norm_class_idx: 3
            -
               depth: 4
               value: 1.
               norm_class_idx: 0
               splits:
                  - { var:172, quality:1.7690834045410156e+02,
                      le:-6.3040778040885925e-03 }
            -
               depth: 5
               value: 1.
               norm_class_idx: 0
            -
               depth: 5
               value: 4.
               norm_class_idx: 3
            -
               depth: 2
               value: 2.
               norm_class_idx: 1
               splits:
                  - { var:91, quality:1.2162567138671875e+03,
                      le:9.9000000953674316e-01 }
            -
               depth: 3
               value: 2.
               norm_class_idx: 1
               splits:
                  - { var:78, quality:8.6771295166015625e+02,
                      le:1.6988160088658333e-02 }
            -
               depth: 4
               value: 2.
               norm_class_idx: 1
               splits:
                  - { var:233, quality:9.1522674560546875e+02,
                      le:4.7194552612304688e+02 }
            -
               depth: 5
               value: 2.
               norm_class_idx: 1
            -
               depth: 5
               value: 2.
               norm_class_idx: 1
            -
               depth: 4
               value: 3.
               norm_class_idx: 2
            -
               depth: 3
               value: 2.
               norm_class_idx: 1
               splits:
                  - { var:222, quality:5.9693139648437500e+02,
                      le:1.3429999351501465e-01 }
            -
               depth: 4
               value: 1.
               norm_class_idx: 0
               splits:
                  - { var:173, quality:1.6530035400390625e+02,
                      le:2.0321707415860146e-04 }
            -
               depth: 5
               value: 1.
               norm_class_idx: 0
            -
               depth: 5
               value: 1.
               norm_class_idx: 0
            -
               depth: 4
               value: 2.
               norm_class_idx: 1
               splits:
                  - { var:0, quality:4.7654589843750000e+02,
                      le:9.6119999885559082e-01 }
            -
               depth: 5
               value: 2.
               norm_class_idx: 1
            -
               depth: 5
               value: 2.
               norm_class_idx: 1
            -
               depth: 1
               value: 3.
               norm_class_idx: 2
               splits:
                  - { var:226, quality:1.3578022460937500e+03,
                      le:1.4641220681369305e-02 }
            -
               depth: 2
               value: 4.
               norm_class_idx: 3
               splits:
                  - { var:25, quality:8.7963964843750000e+02,
                      le:1.4114609360694885e-01 }
            -
               depth: 3
               value: 4.
               norm_class_idx: 3
               splits:
                  - { var:213, quality:5.9581152343750000e+02,
                      le:1.0161458969116211e+01 }
            -
               depth: 4
               value: 4.
               norm_class_idx: 3
               splits:
                  - { var:152, quality:5.6864019775390625e+02,
                      le:6.5014767646789551e-01 }
            -
               depth: 5
               value: 4.
               norm_class_idx: 3
            -
               depth: 5
               value: 3.
               norm_class_idx: 2
            -
               depth: 4
               value: 3.
               norm_class_idx: 2
               splits:
                  - { var:192, quality:1.0256521606445312e+02,
                      le:2.1007931232452393e-01 }
            -
               depth: 5
               value: 3.
               norm_class_idx: 2
            -
               depth: 5
               value: 1.
               norm_class_idx: 0
            -
               depth: 3
               value: 3.
               norm_class_idx: 2
               splits:
                  - { var:217, quality:5.4547973632812500e+02,
                      le:-1.9078220367431641e+01 }
            -
               depth: 4
               value: 4.
               norm_class_idx: 3
               splits:
                  - { var:40, quality:2.6157189941406250e+02,
                      le:9.2280000448226929e-01 }
            -
               depth: 5
               value: 4.
               norm_class_idx: 3
            -
               depth: 5
               value: 3.
               norm_class_idx: 2
            -
               depth: 4
               value: 3.
               norm_class_idx: 2
               splits:
                  - { var:0, quality:3.3541729736328125e+02,
                      le:3.8400000333786011e-01 }
            -
               depth: 5
               value: 3.
               norm_class_idx: 2
            -
               depth: 5
               value: 3.
               norm_class_idx: 2
            -
               depth: 2
               value: 3.
               norm_class_idx: 2
               splits:
                  - { var:227, quality:6.8194403076171875e+02,
                      le:2.2841890156269073e-01 }
            -
               depth: 3
               value: 3.
               norm_class_idx: 2
               splits:
                  - { var:28, quality:6.2401702880859375e+02,
                      le:1.5500000119209290e-01 }
            -
               depth: 4
               value: 3.
               norm_class_idx: 2
               splits:
                  - { var:173, quality:3.7521374511718750e+02,
                      le:2.8865975764347240e-05 }
            -
               depth: 5
               value: 1.
               norm_class_idx: 0
            -
               depth: 5
               value: 3.
               norm_class_idx: 2
            -
               depth: 4
               value: 3.
               norm_class_idx: 2
               splits:
                  - { var:172, quality:2.7303140258789062e+02,
                      le:4.3836407363414764e-02 }
            -
               depth: 5
               value: 3.
               norm_class_idx: 2
            -
               depth: 5
               value: 2.
               norm_class_idx: 1
            -
               depth: 3
               value: 4.
               norm_class_idx: 3
      -
         nodes:
            -
               depth: 0
               value: 4.
               norm_class_idx: 3
               splits:
                  - { var:169, quality:2.5092478027343750e+03,
                      le:4.4861186324851587e-05 }
            -
               depth: 1
               value: 1.
               norm_class_idx: 0
               splits:
                  - { var:231, quality:1.1835648193359375e+03,
                      le:2.1071881055831909e-01 }
            -
               depth: 2
               value: 1.
               norm_class_idx: 0
               splits:
                  - { var:197, quality:1.0987266845703125e+03,
                      le:6.3621751905884594e-05 }
            -
               depth: 3
               value: 1.
               norm_class_idx: 0
               splits:
                  - { var:226, quality:1.1068986816406250e+03,
                      le:1.3935327529907227e-02 }
            -
               depth: 4
               value: 1.
               norm_class_idx: 0
               splits:
                  - { var:165, quality:1.0630168457031250e+03,
                      le:4.8718105972511694e-05 }
            -
               depth: 5
               value: 1.
               norm_class_idx: 0
            -
               depth: 5
               value: 1.
               norm_class_idx: 0
            -
               depth: 4
               value: 1.
               norm_class_idx: 0
               splits:
                  - { var:230, quality:7.8567565917968750e+01,
                      le:1.5790353715419769e-01 }
            -
               depth: 5
               value: 1.
               norm_class_idx: 0
            -
               depth: 5
               value: 4.
               norm_class_idx: 3
            -
               depth: 3
               value: 3.
               norm_class_idx: 2
               splits:
                  - { var:48, quality:1.5500000000000000e+01,
                      le:3.9640000462532043e-01 }
            -
               depth: 4
               value: 3.
               norm_class_idx: 2
            -
               depth: 4
               value: 4.
               norm_class_idx: 3
            -
               depth: 2
               value: 2.
               norm_class_idx: 1
               splits:
                  - { var:31, quality:1.9143560791015625e+02,
                      le:1.7358889579772949e+00 }
            -
               depth: 3
               value: 2.
               norm_class_idx: 1
               splits:
                  - { var:226, quality:1.4659063720703125e+02,
                      le:-8.8799832155928016e-05 }
            -
               depth: 4
               value: 1.
               norm_class_idx: 0
            -
               depth: 4
               value: 2.
               norm_class_idx: 1
               splits:
                  - { var:162, quality:1.1547618865966797e+02,
                      le:-2.8873872756958008e-01 }
            -
               depth: 5
               value: 1.
               norm_class_idx: 0
            -
               depth: 5
               value: 2.
               norm_class_idx: 1
            -
               depth: 3
               value: 3.
               norm_class_idx: 2
               splits:
                  - { var:227, quality:9.5563636779785156e+01,
                      le:1.9909843802452087e-01 }
            -
               depth: 4
               value: 3.
               norm_class_idx: 2
               splits:
                  - { var:172, quality:1.0605940246582031e+02,
                      le:-6.4810253679752350e-03 }
            -
               depth: 5
               value: 1.
               norm_class_idx: 0
            -
               depth: 5
               value: 3.
               norm_class_idx: 2
            -
               depth: 4
               value: 1.
               norm_class_idx: 0
               splits:
                  - { var:222, quality:11., le:2.4549999833106995e-01 }
            -
               depth: 5
               value: 1.
               norm_class_idx: 0
            -
               depth: 5
               value: 4.
               norm_class_idx: 3
            -
               depth: 1
               value: 4.
               norm_class_idx: 3
               splits:
                  - { var:36, quality:1.8179849853515625e+03,
                      le:1.9999999552965164e-02 }
            -
               depth: 2
               value: 4.
               norm_class_idx: 3
               splits:
                  - { var:54, quality:1.1308443603515625e+03,
                      le:1.6988160088658333e-02 }
            -
               depth: 3
               value: 4.
               norm_class_idx: 3
               splits:
                  - { var:196, quality:5.9627545166015625e+02,
                      le:2.3284730315208435e-01 }
            -
               depth: 4
               value: 4.
               norm_class_idx: 3
               splits:
                  - { var:227, quality:3.5024069213867188e+02,
                      le:1.4923782646656036e-01 }
            -
               depth: 5
               value: 4.
               norm_class_idx: 3
            -
               depth: 5
               value: 4.
               norm_class_idx: 3
            -
               depth: 4
               value: 4.
               norm_class_idx: 3
               splits:
                  - { var:159, quality:3.0710256958007812e+02,
                      le:-7.2237339019775391e+00 }
            -
               depth: 5
               value: 1.
               norm_class_idx: 0
            -
               depth: 5
               value: 4.
               norm_class_idx: 3
            -
               depth: 3
               value: 2.
               norm_class_idx: 1
               splits:
                  - { var:173, quality:6.9823413085937500e+02,
                      le:6.8981811637058854e-05 }
            -
               depth: 4
               value: 1.
               norm_class_idx: 0
               splits:
                  - { var:184, quality:7.4578460693359375e+01,
                      le:7.1047479286789894e-03 }
            -
               depth: 5
               value: 1.
               norm_class_idx: 0
            -
               depth: 5
               value: 1.
               norm_class_idx: 0
            -
               depth: 4
               value: 2.
               norm_class_idx: 1
               splits:
                  - { var:204, quality:6.9578973388671875e+02,
                      le:2.1474787592887878e-01 }
            -
               depth: 5
               value: 2.
               norm_class_idx: 1
            -
               depth: 5
               value: 2.
               norm_class_idx: 1
            -
               depth: 2
               value: 3.
               norm_class_idx: 2
               splits:
                  - { var:157, quality:1.1541510009765625e+03,
                      le:2.8928121537319385e-05 }
            -
               depth: 3
               value: 4.
               norm_class_idx: 3
               splits:
                  - { var:168, quality:7.0795324707031250e+02,
                      le:1.8815967440605164e-01 }
            -
               depth: 4
               value: 4.
               norm_class_idx: 3
               splits:
                  - { var:156, quality:4.4582131958007812e+02,
                      le:1.6400510072708130e-01 }
            -
               depth: 5
               value: 4.
               norm_class_idx: 3
            -
               depth: 5
               value: 4.
               norm_class_idx: 3
            -
               depth: 4
               value: 3.
               norm_class_idx: 2
               splits:
                  - { var:37, quality:3.8038385009765625e+02,
                      le:-1.7664000391960144e-02 }
            -
               depth: 5
               value: 3.
               norm_class_idx: 2
            -
               depth: 5
               value: 4.
